svm_type c_svc
RBF gamma=0.125label
rho 0.4896664
total_sv 504
nr_class 2
SV
-1.0 1:0.29411766 2:0.4874372 3:0.6229508 4:0.27272728 5:0.0 6:0.53055143 7:0.15619835 8:0.6419753 
1.0 1:0.3529412 2:0.6281407 3:0.55737704 4:0.3030303 5:0.14184397 6:0.4470939 7:0.19173554 8:0.39506173 
-1.0 1:0.5294118 2:0.8241206 3:0.6885246 4:0.21212122 5:0.0 6:0.45901638 7:0.34338844 8:0.39506173 
1.0 1:0.23529412 2:0.6130653 3:0.55737704 4:0.0 5:0.0 6:0.52160954 7:0.16280992 8:0.3580247 
1.0 1:0.3529412 2:0.51758796 3:0.59016395 4:0.32323232 5:0.2245863 6:0.561848 7:0.1338843 8:0.67901236 
-1.0 1:0.5882353 2:0.6482412 3:0.5081967 4:0.36363637 5:0.0 6:0.61400896 7:0.18223141 8:0.4691358 
-1.0 1:0.47058824 2:0.5276382 3:0.8196721 4:0.36363637 5:0.0 6:0.6453055 7:0.09876033 8:0.5555556 
-1.0 1:0.11764706 2:0.7336683 3:0.0 4:0.0 5:0.0 6:0.40983605 7:0.09917355 8:0.34567901 
1.0 1:0.23529412 2:0.56281406 3:0.6393443 4:0.4040404 5:0.0 6:0.5871833 7:0.097520664 8:0.4691358 
-1.0 1:0.1764706 2:0.79396987 3:0.6229508 4:0.36363637 5:0.2895981 6:0.4709389 7:0.3516529 8:0.34567901 
1.0 1:0.23529412 2:0.65829146 3:0.55737704 4:0.21212122 5:0.19621749 6:0.49329358 7:0.0661157 8:0.34567901 
-1.0 1:0.23529412 2:0.7839196 3:0.6147541 4:0.0 5:0.0 6:0.71982116 7:0.098347105 8:0.39506173 
-1.0 1:0.1764706 2:0.9698492 3:0.57377046 4:0.3131313 5:0.0 6:0.52011925 7:0.09958678 8:0.30864197 
1.0 1:0.05882353 2:0.9698492 3:0.40983605 4:0.16161616 5:0.4432624 6:0.38599107 7:0.27066115 8:0.2962963 
1.0 1:0.3529412 2:0.5125628 3:0.73770493 4:0.3939394 5:0.0 6:0.5320417 7:0.2785124 8:0.34567901 
-1.0 1:0.0 2:0.81407034 3:0.6229508 4:0.36363637 5:0.0 6:0.7391952 7:0.15041323 8:0.32098764 
-1.0 1:0.0 2:0.6934673 3:0.0 4:0.0 5:0.0 6:0.5409836 7:0.38553718 8:0.30864197 
1.0 1:0.4117647 2:0.59799 3:0.0 4:0.0 5:0.0 6:0.37555885 7:0.086363636 8:0.45679012 
-1.0 1:0.47058824 2:0.77386934 3:0.6393443 4:0.32323232 5:0.0 6:0.4828614 7:0.18305784 8:0.5555556 
-1.0 1:0.11764706 2:0.5929648 3:0.6557377 4:0.0 5:0.0 6:0.6393443 7:0.28636363 8:0.25925925 
-1.0 1:0.5882353 2:0.50753766 3:0.704918 4:0.37373737 5:0.0 6:0.6795827 7:0.46942148 8:0.4691358 
-1.0 1:0.7647059 2:0.79396987 3:0.93442625 4:0.0 5:0.0 6:0.6304024 7:0.10619835 8:0.54320985 
1.0 1:0.3529412 2:0.5728643 3:0.72131145 4:0.0 5:0.0 6:0.414307 7:0.102066115 8:0.8148148 
1.0 1:0.23529412 2:0.94974875 3:0.90163934 4:0.3131313 5:0.0 6:0.42473918 7:0.28099173 8:0.45679012 
1.0 1:0.23529412 2:0.6482412 3:0.4918033 4:0.121212125 5:0.27304965 6:0.40983605 7:0.2177686 8:0.38271606 
1.0 1:0.0 2:0.5728643 3:0.6557377 4:0.34343433 5:0.33687943 6:0.65871835 7:0.06900826 8:0.33333334 
-1.0 1:0.1764706 2:0.79396987 3:0.57377046 4:0.3030303 5:0.38770685 6:0.5290611 7:0.14214876 8:0.43209878 
-1.0 1:0.1764706 2:0.6080402 3:0.4262295 4:0.0 5:0.0 6:0.5365127 7:0.052479338 8:0.30864197 
1.0 1:0.5882353 2:0.6482412 3:0.6229508 4:0.28282827 5:0.14420804 6:0.5350224 7:0.11570248 8:0.4814815 
1.0 1:0.5882353 2:0.50753766 3:0.6229508 4:0.4848485 5:0.21276596 6:0.49031296 7:0.07066116 8:0.7777778 
-1.0 1:0.47058824 2:0.5025126 3:0.60655737 4:0.4040404 5:0.25413713 6:0.5871833 7:0.2731405 8:0.5308642 
1.0 1:0.05882353 2:0.5929648 3:0.47540984 4:0.36363637 5:0.11111111 6:0.4962742 7:0.10785124 8:0.28395063 
-1.0 1:0.47058824 2:0.8994975 3:0.59016395 4:0.42424244 5:0.1536643 6:0.48733234 7:0.29710743 8:0.44444445 
-1.0 1:0.11764706 2:0.7788945 3:0.4262295 4:0.27272728 5:0.63829786 6:0.5767511 7:0.09917355 8:0.30864197 
-1.0 1:0.0 2:0.6432161 3:0.55737704 4:0.1919192 5:0.21276596 6:0.45454547 7:0.5747934 8:0.30864197 
-1.0 1:0.1764706 2:0.3919598 3:0.40983605 4:0.32323232 5:0.10401891 6:0.46199703 7:0.10247934 8:0.32098764 
-1.0 1:0.23529412 2:0.57788944 3:0.59016395 4:0.0 5:0.0 6:0.43070045 7:0.1553719 8:0.56790125 
-1.0 1:0.5294118 2:0.85427135 3:0.60655737 4:0.3131313 5:0.0 6:0.6557377 7:0.16652893 8:0.5308642 
1.0 1:0.3529412 2:0.77386934 3:0.6393443 4:0.41414142 5:0.16548464 6:0.68703425 7:0.23595041 8:0.33333334 
-1.0 1:0.11764706 2:0.6231156 3:0.55737704 4:0.28282827 5:0.24231678 6:0.49031296 7:0.36157024 8:0.37037036 
1.0 1:0.3529412 2:0.5879397 3:0.78688526 4:0.0 5:0.0 6:0.42771983 7:0.064876035 8:0.37037036 
-1.0 1:0.05882353 2:0.8643216 3:0.55737704 4:0.4949495 5:0.68439716 6:0.6318927 7:0.29008263 8:0.34567901 
-1.0 1:0.05882353 2:0.6432161 3:0.72131145 4:0.3939394 5:0.13002364 6:0.5439642 7:0.43677685 8:0.45679012 
-1.0 1:0.7058824 2:0.7035176 3:0.6721311 4:0.43434343 5:0.38416076 6:0.5842027 7:0.21818182 8:0.7160494 
-1.0 1:0.64705884 2:0.60301507 3:0.6557377 4:0.37373737 5:0.17730497 6:0.6304024 7:0.32438016 8:0.5925926 
1.0 1:0.3529412 2:0.5276382 3:0.6557377 4:0.28282827 5:0.0 6:0.48435172 7:0.36280993 8:0.32098764 
1.0 1:0.11764706 2:0.4120603 3:0.4262295 4:0.22222222 5:0.1359338 6:0.42473918 7:0.7020661 8:0.30864197 
-1.0 1:0.29411766 2:0.7236181 3:0.6721311 4:0.26262626 5:0.33687943 6:0.47690016 7:0.18677686 8:0.7160494 
-1.0 1:0.4117647 2:0.5025126 3:0.0 4:0.0 5:0.0 6:0.4470939 7:0.2 8:0.39506173 
1.0 1:0.11764706 2:0.53266335 3:0.52459013 4:0.35353535 5:0.14066194 6:0.45454547 7:0.5785124 8:0.41975307 
-1.0 1:0.88235295 2:0.6834171 3:0.57377046 4:0.32323232 5:0.13002364 6:0.5529061 7:0.06322314 8:0.5308642 
-1.0 1:0.29411766 2:0.79396987 3:0.6885246 4:0.41414142 5:0.24822696 6:0.5871833 7:0.16322315 8:0.3580247 
1.0 1:0.05882353 2:0.76884425 3:0.6721311 4:0.42424244 5:0.57328606 6:0.6050671 7:0.2838843 8:0.28395063 
1.0 1:0.4117647 2:0.75376886 3:0.5409836 4:0.42424244 5:0.40425533 6:0.5171386 7:0.29669422 8:0.5185185 
-1.0 1:0.4117647 2:0.8442211 3:0.72131145 4:0.42424244 5:0.37943262 6:0.5692996 7:0.3252066 8:0.49382716 
-1.0 1:0.11764706 2:0.46733668 3:0.52459013 4:0.32323232 5:0.1891253 6:0.5663189 7:0.2785124 8:0.28395063 
-1.0 1:0.4117647 2:0.5477387 3:0.6557377 4:0.3131313 5:0.0 6:0.5350224 7:0.46570247 8:0.5308642 
1.0 1:0.3529412 2:0.53768843 3:0.72131145 4:0.0 5:0.0 6:0.54843515 7:0.30041322 8:0.38271606 
-1.0 1:0.1764706 2:0.69849247 3:0.44262296 4:0.0 5:0.0 6:0.38152012 7:0.1661157 8:0.27160493 
1.0 1:0.5882353 2:0.8994975 3:0.57377046 4:0.0 5:0.0 6:0.52309984 7:0.08264463 8:0.45679012 
-1.0 1:0.4117647 2:0.71356785 3:0.73770493 4:0.24242425 5:0.5673759 6:0.45305514 7:0.052892562 8:0.5308642 
0.6496799756177379 1:0.4117647 2:0.53266335 3:0.75409836 4:0.18181819 5:0.0 6:0.33830103 7:0.09710744 8:0.5925926 
1.0 1:0.47058824 2:0.5025126 3:0.6229508 4:0.0 5:0.0 6:0.5767511 7:0.0785124 8:0.5185185 
-1.0 1:0.3529412 2:0.57788944 3:0.4918033 4:0.3939394 5:0.0 6:0.5022355 7:0.10123967 8:0.49382716 
-1.0 1:0.1764706 2:0.86934674 3:0.6393443 4:0.3939394 5:0.21867612 6:0.50372577 7:0.40082645 8:0.38271606 
-1.0 1:0.0 2:0.94974875 3:0.852459 4:0.25252524 5:0.0 6:0.51117736 7:0.17975207 8:0.50617284 
-1.0 1:0.7058824 2:0.46231157 3:0.5081967 4:0.07070707 5:0.30496454 6:0.41132638 7:0.38264462 8:0.54320985 
-1.0 1:0.5294118 2:0.7839196 3:0.704918 4:0.0 5:0.0 6:0.3695976 7:0.09504132 8:0.654321 
-1.0 1:0.11764706 2:0.67336684 3:0.57377046 4:0.0 5:0.0 6:0.43070045 7:0.22396694 8:0.28395063 
1.0 1:0.29411766 2:0.6080402 3:0.59016395 4:0.23232323 5:0.13238771 6:0.390462 7:0.10123967 8:0.37037036 
1.0 1:0.0 2:0.59799 3:0.5409836 4:0.27272728 5:0.0 6:0.5782414 7:0.1070248 8:0.27160493 
-1.0 1:0.3529412 2:0.74371856 3:0.59016395 4:0.35353535 5:0.0 6:0.5007452 7:0.2590909 8:0.61728394 
-1.0 1:0.4117647 2:0.79899496 3:0.5409836 4:0.0 5:0.0 6:0.45305514 7:0.15826446 8:0.44444445 
1.0 1:0.05882353 2:0.63316584 3:0.45901638 4:0.2929293 5:0.17966904 6:0.42771983 7:0.33099174 8:0.25925925 
1.0 1:0.0 2:0.6482412 3:0.6557377 4:0.0 5:0.0 6:0.46497765 7:0.29049587 8:0.3580247 
-1.0 1:0.4117647 2:0.5728643 3:0.52459013 4:0.0 5:0.0 6:0.40834576 7:0.30247933 8:0.41975307 
1.0 1:0.05882353 2:0.5427136 3:0.4918033 4:0.46464646 5:0.2104019 6:0.5290611 7:0.1714876 8:0.2962963 
-1.0 1:0.47058824 2:0.93467337 3:0.73770493 4:0.35353535 5:0.26595744 6:0.51415795 7:0.17479339 8:0.45679012 
-1.0 1:0.11764706 2:0.7336683 3:0.57377046 4:0.3838384 5:0.42553192 6:0.41728762 7:0.1392562 8:0.3580247 
-1.0 1:0.1764706 2:0.81407034 3:0.4262295 4:0.3838384 5:0.0 6:0.55439645 7:0.2694215 8:0.2962963 
1.0 1:0.4117647 2:0.79899496 3:0.52459013 4:0.0 5:0.0 6:0.40834576 7:0.1214876 8:0.49382716 
-1.0 1:0.0 2:0.59799 3:0.0 4:0.0 5:0.0 6:0.4828614 7:0.058264464 8:0.2962963 
1.0 1:0.64705884 2:0.6381909 3:0.86885244 4:0.0 5:0.0 6:0.58122206 7:0.0785124 8:0.6296296 
-1.0 1:0.29411766 2:0.5829146 3:0.60655737 4:0.2929293 5:0.0 6:0.48137107 7:0.27272728 8:0.43209878 
-1.0 1:0.29411766 2:0.94974875 3:0.52459013 4:0.33333334 5:0.38416076 6:0.46497765 7:0.24090908 8:0.3580247 
1.0 1:0.05882353 2:0.8241206 3:0.6721311 4:0.43434343 5:0.079196215 6:0.48882264 7:0.14090909 8:0.61728394 
-1.0 1:0.05882353 2:0.90954775 3:0.6393443 4:0.42424244 5:0.3463357 6:0.5961252 7:0.5198347 8:0.27160493 
1.0 1:0.0 2:0.53266335 3:0.57377046 4:0.37373737 5:0.1749409 6:0.5871833 7:0.25 8:0.27160493 
-1.0 1:0.11764706 2:0.79396987 3:0.73770493 4:0.0 5:0.0 6:0.4709389 7:0.33264464 8:0.8148148 
-1.0 1:0.0 2:0.52261305 3:0.52459013 4:0.37373737 5:0.07565012 6:0.5007452 7:0.2107438 8:0.27160493 
1.0 1:0.0 2:0.7085427 3:0.6885246 4:0.26262626 5:0.0 6:0.4828614 7:0.17892562 8:0.27160493 
-1.0 1:0.1764706 2:0.6432161 3:0.59016395 4:0.25252524 5:0.2245863 6:0.4828614 7:0.22685951 8:0.33333334 
1.0 1:0.3529412 2:0.45728642 3:0.0 4:0.0 5:0.0 6:0.44411325 7:0.2070248 8:0.38271606 
1.0 1:0.11764706 2:0.6432161 3:0.52459013 4:0.42424244 5:0.0 6:0.5961252 7:0.45495868 8:0.2962963 
-1.0 1:0.47058824 2:0.5477387 3:0.6229508 4:0.3939394 5:0.13475177 6:0.41579732 7:0.2644628 8:0.38271606 
1.0 1:0.7647059 2:0.38190955 3:0.4918033 4:0.0 5:0.0 6:0.48882264 7:0.07438017 8:0.50617284 
-1.0 1:0.0 2:0.65829146 3:0.0 4:0.0 5:0.0 6:0.6438152 7:0.11157025 8:0.32098764 
1.0 1:0.47058824 2:0.5929648 3:0.59016395 4:0.1919192 5:0.0 6:0.3442623 7:0.60991734 8:0.56790125 
-1.0 1:0.05882353 2:0.5125628 3:0.60655737 4:0.0 5:0.0 6:0.58867365 7:0.12107438 8:0.5185185 
1.0 1:0.29411766 2:0.5276382 3:0.59016395 4:0.2929293 5:0.38416076 6:0.5499255 7:0.06570248 8:0.34567901 
1.0 1:0.0 2:0.53768843 3:0.6229508 4:0.0 5:0.0 6:0.6751118 7:0.28347108 8:0.2962963 
-1.0 1:0.4117647 2:0.89447236 3:0.6885246 4:0.0 5:0.0 6:0.5946349 7:0.13677686 8:0.50617284 
-1.0 1:0.23529412 2:0.6834171 3:0.57377046 4:0.0 5:0.0 6:0.46497765 7:0.48842975 8:0.27160493 
1.0 1:0.3529412 2:0.5276382 3:0.57377046 4:0.32323232 5:0.08037825 6:0.45901638 7:0.050413225 8:0.45679012 
-1.0 1:0.3529412 2:0.52261305 3:0.60655737 4:0.18181819 5:0.18439716 6:0.44560358 7:0.29834712 8:0.50617284 
-1.0 1:0.05882353 2:0.6130653 3:0.73770493 4:0.5151515 5:0.2600473 6:0.7406855 7:0.13429752 8:0.38271606 
-1.0 1:0.0 2:0.9045226 3:0.73770493 4:0.26262626 5:0.10638298 6:0.5439642 7:0.12975207 8:0.43209878 
-1.0 1:0.3529412 2:0.6281407 3:0.6393443 4:0.3131313 5:0.0 6:0.41132638 7:0.23347108 8:0.60493827 
-1.0 1:0.64705884 2:0.71859294 3:0.7704918 4:0.33333334 5:0.17257683 6:0.54545456 7:0.104958676 8:0.6296296 
1.0 1:0.23529412 2:0.6381909 3:0.72131145 4:0.11111111 5:0.18321513 6:0.51415795 7:0.24710743 8:0.34567901 
1.0 1:0.11764706 2:0.6130653 3:0.4262295 4:0.43434343 5:0.18676123 6:0.5394933 7:0.3371901 8:0.34567901 
1.0 1:0.29411766 2:0.6432161 3:0.6557377 4:0.0 5:0.0 6:0.5156483 7:0.059504133 8:0.5555556 
-1.0 1:0.0 2:0.6482412 3:0.90163934 4:0.46464646 5:0.1536643 6:1.0 7:0.13181818 8:0.32098764 
1.0 1:0.23529412 2:0.68844223 3:0.6885246 4:0.0 5:0.0 6:0.46497765 7:0.104132235 8:0.37037036 
1.0 1:0.3529412 2:0.61809045 3:0.59016395 4:0.45454547 5:0.2718676 6:0.5007452 7:0.30289257 8:0.41975307 
-1.0 1:0.47058824 2:0.7788945 3:0.5081967 4:0.26262626 5:0.5851064 6:0.5067064 7:0.22438017 8:0.56790125 
1.0 1:0.47058824 2:0.60301507 3:0.6393443 4:0.0 5:0.0 6:0.37257823 7:0.16900827 8:0.79012346 
-1.0 1:0.11764706 2:0.7788945 3:0.60655737 4:0.17171717 5:0.11347517 6:0.39642325 7:0.17892562 8:0.33333334 
-1.0 1:0.23529412 2:0.92462313 3:0.6393443 4:0.3939394 5:0.32742316 6:0.5514158 7:0.10909091 8:0.38271606 
-1.0 1:0.05882353 2:0.8190955 3:0.59016395 4:0.0 5:0.0 6:0.58122206 7:0.5049587 8:0.4074074 
1.0 1:0.1764706 2:0.57788944 3:0.5409836 4:0.3939394 5:0.16548464 6:0.5678092 7:0.06198347 8:0.34567901 
1.0 1:0.1764706 2:0.55778897 3:0.45901638 4:0.3939394 5:0.0 6:0.4485842 7:0.23016529 8:0.37037036 
-1.0 1:0.11764706 2:0.6432161 3:0.6393443 4:0.37373737 5:0.21513002 6:0.6453055 7:0.5057851 8:0.38271606 
-1.0 1:0.23529412 2:0.47738692 3:0.52459013 4:0.0 5:0.0 6:0.47690016 7:0.066528924 8:0.38271606 
-1.0 1:0.29411766 2:0.6834171 3:0.6885246 4:0.41414142 5:0.10401891 6:0.52160954 7:0.11818182 8:0.43209878 
1.0 1:0.0 2:0.86934674 3:0.6393443 4:0.32323232 5:0.31323877 6:0.69299555 7:0.47892562 8:0.7160494 
-1.0 1:0.64705884 2:0.55778897 3:0.6885246 4:0.4040404 5:0.0 6:0.6974665 7:0.3822314 8:0.5555556 
0.5341662077187134 1:0.11764706 2:0.57788944 3:0.52459013 4:0.22222222 5:0.0 6:0.45901638 7:0.17396694 8:0.25925925 
-1.0 1:0.5882353 2:0.55778897 3:0.57377046 4:0.27272728 5:0.0 6:0.40983605 7:0.058264464 8:0.49382716 
1.0 1:0.23529412 2:0.51758796 3:0.4918033 4:0.33333334 5:0.22695035 6:0.3576751 7:0.39917356 8:0.4074074 
-1.0 1:0.23529412 2:0.72864324 3:0.6721311 4:0.18181819 5:0.0 6:0.48435172 7:0.09710744 8:0.86419755 
-1.0 1:0.11764706 2:0.5276382 3:0.6557377 4:0.45454547 5:0.22576833 6:0.5022355 7:0.29380167 8:0.3580247 
-1.0 1:0.5294118 2:0.72864324 3:0.6557377 4:0.46464646 5:0.1536643 6:0.56482863 7:0.26322314 8:0.49382716 
-1.0 1:0.29411766 2:0.69849247 3:0.6557377 4:0.35353535 5:0.1891253 6:0.4709389 7:0.14917356 8:0.30864197 
-1.0 1:0.5882353 2:0.6281407 3:0.57377046 4:0.26262626 5:0.1359338 6:0.46348733 7:0.08471075 8:0.50617284 
-1.0 1:0.05882353 2:0.6432161 3:0.8032787 4:0.41414142 5:0.06855792 6:0.47690016 7:0.54586774 8:0.4074074 
1.0 1:0.0 2:0.8291457 3:0.6229508 4:0.43434343 5:0.30141845 6:0.7138599 7:0.1070248 8:0.32098764 
1.0 1:0.0 2:0.6381909 3:0.6557377 4:0.37373737 5:0.24822696 6:0.5409836 7:0.3322314 8:0.28395063 
-1.0 1:0.5294118 2:0.8241206 3:0.6393443 4:0.0 5:0.0 6:0.48882264 7:0.061157025 8:0.5555556 
1.0 1:0.5882353 2:0.4723618 3:0.59016395 4:0.18181819 5:0.0 6:0.3442623 7:0.24586777 8:0.69135803 
1.0 1:0.05882353 2:0.71859294 3:0.6885246 4:0.23232323 5:0.36643025 6:0.6318927 7:0.4446281 8:0.27160493 
1.0 1:0.23529412 2:0.6633166 3:0.704918 4:0.3131313 5:0.0 6:0.41728762 7:0.1731405 8:0.7777778 
-1.0 1:0.29411766 2:0.8341709 3:0.59016395 4:0.1919192 5:0.20685579 6:0.38450074 7:0.24256198 8:0.6296296 
-1.0 1:0.29411766 2:0.8341709 3:0.6229508 4:0.0 5:0.0 6:0.681073 7:0.14049587 8:0.33333334 
-1.0 1:0.29411766 2:0.68844223 3:0.8852459 4:0.0 5:0.0 6:0.72727275 7:0.093801655 8:0.45679012 
1.0 1:0.5882353 2:0.6130653 3:0.6393443 4:0.3131313 5:0.0 6:0.41132638 7:0.21157025 8:0.5555556 
1.0 1:0.05882353 2:0.56281406 3:0.59016395 4:0.3030303 5:0.20803782 6:0.51266766 7:0.21818182 8:0.30864197 
1.0 1:0.29411766 2:0.5477387 3:0.6147541 4:0.26262626 5:0.0 6:0.5365127 7:0.22561984 8:0.7407407 
-1.0 1:0.11764706 2:0.5125628 3:0.704918 4:0.36363637 5:0.14184397 6:0.6780924 7:0.052479338 8:0.28395063 
1.0 1:0.47058824 2:0.45728642 3:0.6721311 4:0.0 5:0.0 6:0.53055143 7:0.24256198 8:0.83950615 
-1.0 1:0.23529412 2:0.6633166 3:0.0 4:0.0 5:0.0 6:0.49031296 7:0.12479339 8:0.28395063 
1.0 1:0.0 2:0.7336683 3:0.6721311 4:0.0 5:0.0 6:0.6035768 7:0.7359504 8:0.54320985 
-1.0 1:0.5294118 2:0.59799 3:0.6557377 4:0.35353535 5:0.0 6:0.43219075 7:0.108677685 8:0.3580247 
-1.0 1:0.29411766 2:0.5477387 3:0.5081967 4:0.41414142 5:0.15248227 6:0.533532 7:0.2123967 8:0.30864197 
1.0 1:0.5882353 2:0.57788944 3:0.8032787 4:0.0 5:0.0 6:0.3576751 7:0.42231405 8:0.41975307 
1.0 1:0.47058824 2:0.37185928 3:0.57377046 4:0.4040404 5:0.05791962 6:0.5260805 7:0.29132232 8:0.4814815 
-1.0 1:0.1764706 2:0.8844221 3:0.704918 4:0.27272728 5:0.18439716 6:0.4962742 7:0.4768595 8:0.6419753 
1.0 1:0.1764706 2:0.75376886 3:0.6229508 4:0.0 5:0.0 6:0.31296572 7:0.08553719 8:0.45679012 
-1.0 1:0.4117647 2:0.6482412 3:0.55737704 4:0.4949495 5:0.14775413 6:0.57377046 7:0.18140496 8:0.5308642 
-1.0 1:0.1764706 2:0.6482412 3:0.52459013 4:0.2929293 5:0.1359338 6:0.39344263 7:0.09049587 8:0.34567901 
1.0 1:0.29411766 2:0.7386935 3:0.6147541 4:0.0 5:0.0 6:0.44560358 7:0.17933884 8:0.34567901 
1.0 1:0.0 2:0.8291457 3:0.73770493 4:0.33333334 5:0.8037825 6:0.77943367 7:0.17644627 8:0.28395063 
1.0 1:0.05882353 2:0.71859294 3:0.704918 4:0.3030303 5:0.39007092 6:0.4485842 7:0.36859503 8:0.28395063 
-1.0 1:0.5294118 2:0.7638191 3:0.6393443 4:0.34343433 5:0.20212767 6:0.509687 7:0.36900827 8:0.4074074 
1.0 1:0.4117647 2:0.6281407 3:0.704918 4:0.0 5:0.0 6:0.5603577 7:0.12561983 8:0.6296296 
1.0 1:0.0 2:0.69849247 3:0.5081967 4:0.17171717 5:0.24822696 6:0.32935917 7:0.08553719 8:0.25925925 
1.0 1:0.0 2:0.67336684 3:0.47540984 4:0.2020202 5:0.34397164 6:0.39344263 7:0.14545454 8:0.25925925 
1.0 1:0.1764706 2:0.5829146 3:0.0 4:0.0 5:0.0 6:0.35022354 7:0.07727273 8:0.28395063 
-1.0 1:0.29411766 2:0.8442211 3:0.52459013 4:0.0 5:0.0 6:0.49031296 7:0.055785123 8:0.50617284 
1.0 1:0.11764706 2:0.69849247 3:0.6147541 4:0.0 5:0.0 6:0.38152012 7:0.06900826 8:0.3580247 
1.0 1:0.1764706 2:0.63316584 3:0.72131145 4:0.41414142 5:0.2777778 6:0.585693 7:0.29090908 8:0.33333334 
-1.0 1:0.4117647 2:0.7386935 3:0.6229508 4:0.0 5:0.0 6:0.5871833 7:0.10619835 8:0.5308642 
1.0 1:0.05882353 2:0.5879397 3:0.4918033 4:0.23232323 5:0.1252955 6:0.50372577 7:0.19256198 8:0.33333334 
-1.0 1:0.11764706 2:0.4522613 3:0.55737704 4:0.42424244 5:0.0 6:0.5692996 7:0.20785125 8:0.33333334 
1.0 1:0.0 2:0.46733668 3:0.8196721 4:0.3939394 5:0.08510638 6:0.6467958 7:0.42190084 8:0.43209878 
1.0 1:0.23529412 2:0.7236181 3:0.47540984 4:0.28282827 5:0.16548464 6:0.4396423 7:0.11859504 8:0.45679012 
1.0 1:0.1764706 2:0.71356785 3:0.6557377 4:0.15151516 5:0.0 6:0.4828614 7:0.08264463 8:0.7777778 
-1.0 1:0.23529412 2:0.7336683 3:0.6393443 4:0.0 5:0.0 6:0.57377046 7:0.21487603 8:0.8271605 
1.0 1:0.23529412 2:0.5527638 3:0.5409836 4:0.0 5:0.0 6:0.47540984 7:0.1946281 8:0.3580247 
-1.0 1:0.29411766 2:0.6231156 3:0.60655737 4:0.0 5:0.0 6:0.5067064 7:0.09090909 8:0.4691358 
1.0 1:0.29411766 2:0.48241207 3:0.60655737 4:0.18181819 5:0.079196215 6:0.5007452 7:0.41198346 8:0.5308642 
-1.0 1:0.0 2:0.67839193 3:0.55737704 4:0.42424244 5:0.29550827 6:0.6304024 7:0.15082644 8:0.2962963 
1.0 1:0.7647059 2:0.53266335 3:0.59016395 4:0.54545456 5:0.0 6:0.54545456 7:0.07355372 8:0.5555556 
-1.0 1:0.0 2:0.9447236 3:0.6721311 4:0.14141414 5:0.21867612 6:0.47690016 7:0.28181818 8:0.27160493 
-1.0 1:0.29411766 2:0.6532663 3:0.6721311 4:0.0 5:0.0 6:0.58271235 7:0.39504132 8:0.45679012 
1.0 1:0.47058824 2:0.5527638 3:0.6229508 4:0.0 5:0.0 6:0.414307 7:0.09793388 8:0.7160494 
-1.0 1:0.1764706 2:0.53768843 3:0.5081967 4:0.13131313 5:0.056737587 6:0.34128168 7:0.28016528 8:0.28395063 
1.0 1:0.3529412 2:0.55778897 3:0.52459013 4:0.3939394 5:0.0 6:0.509687 7:0.10743801 8:0.2962963 
-1.0 1:0.0 2:0.7085427 3:0.0 4:0.0 5:0.0 6:0.6318927 7:0.08471075 8:0.3580247 
-1.0 1:0.7647059 2:0.7638191 3:0.73770493 4:0.33333334 5:0.03427896 6:0.39940387 7:0.30206612 8:0.5308642 
1.0 1:0.1764706 2:0.60301507 3:0.57377046 4:0.3030303 5:0.15957446 6:0.6393443 7:0.18677686 8:0.37037036 
1.0 1:0.0 2:0.68844223 3:0.6885246 4:0.27272728 5:0.0 6:0.40685543 7:0.095454544 8:0.72839504 
1.0 1:0.05882353 2:0.6532663 3:0.57377046 4:0.13131313 5:0.12411348 6:0.38599107 7:0.19504133 8:0.27160493 
-1.0 1:0.05882353 2:0.63316584 3:0.4918033 4:0.0 5:0.0 6:0.4485842 7:0.14421488 8:0.5802469 
-1.0 1:0.1764706 2:0.40201005 3:0.6721311 4:0.3131313 5:0.08274232 6:0.509687 7:0.5338843 8:0.33333334 
1.0 1:0.5294118 2:0.45728642 3:0.55737704 4:0.0 5:0.0 6:0.36065573 7:0.08264463 8:0.7160494 
-1.0 1:0.0 2:0.65829146 3:0.72131145 4:0.0 5:0.0 6:0.4709389 7:0.3070248 8:0.39506173 
1.0 1:0.7058824 2:0.5025126 3:0.6885246 4:0.33333334 5:0.12411348 6:0.4470939 7:0.2016529 8:0.56790125 
1.0 1:0.05882353 2:0.5829146 3:0.6393443 4:0.2929293 5:0.21276596 6:0.53800297 7:0.20495868 8:0.30864197 
1.0 1:0.3529412 2:0.75879395 3:0.5081967 4:0.3131313 5:0.14184397 6:0.5290611 7:0.28595042 8:0.34567901 
-1.0 1:0.3529412 2:0.95477384 3:0.75409836 4:0.0 5:0.0 6:0.5290611 7:0.11487603 8:0.8148148 
1.0 1:0.64705884 2:0.51758796 3:0.55737704 4:0.4040404 5:0.0 6:0.6885246 7:0.052066118 8:0.5185185 
1.0 1:0.29411766 2:0.5728643 3:0.60655737 4:0.0 5:0.0 6:0.37108794 7:0.30743802 8:0.7037037 
-1.0 1:0.7058824 2:0.42211056 3:0.59016395 4:0.3131313 5:0.0 6:0.44262296 7:0.122727275 8:0.56790125 
1.0 1:0.05882353 2:0.6532663 3:0.4918033 4:0.23232323 5:0.20094563 6:0.4262295 7:0.28595042 8:0.25925925 
1.0 1:0.23529412 2:0.6482412 3:0.704918 4:0.2020202 5:0.31914893 6:0.52309984 7:0.095454544 8:0.28395063 
-1.0 1:0.05882353 2:0.44221106 3:0.24590164 4:0.42424244 5:0.11702128 6:0.8196721 7:0.20495868 8:0.32098764 
1.0 1:0.3529412 2:0.68844223 3:0.5 4:0.0 5:0.0 6:0.36065573 7:0.062396694 8:0.67901236 
1.0 1:0.7647059 2:0.53266335 3:0.57377046 4:0.0 5:0.0 6:0.509687 7:0.10371901 8:0.6419753 
-1.0 1:0.4117647 2:0.8040201 3:0.44262296 4:0.32323232 5:0.20685579 6:0.45454547 7:0.2429752 8:0.4814815 
-1.0 1:0.23529412 2:0.55778897 3:0.59016395 4:0.47474748 5:0.24468085 6:0.5529061 7:0.57438016 8:0.69135803 
1.0 1:0.23529412 2:0.77386934 3:0.5081967 4:0.3131313 5:0.3356974 6:0.48882264 7:0.09793388 8:0.28395063 
-1.0 1:0.23529412 2:0.74371856 3:0.4918033 4:0.27272728 5:0.37588653 6:0.4605067 7:0.06198347 8:0.3580247 
-1.0 1:0.05882353 2:0.57788944 3:0.57377046 4:0.3030303 5:0.11347517 6:0.5156483 7:0.21859504 8:0.39506173 
-1.0 1:0.0 2:0.8994975 3:0.73770493 4:0.27272728 5:0.0 6:0.657228 7:0.28347108 8:0.28395063 
-1.0 1:0.05882353 2:0.6130653 3:0.52459013 4:0.32323232 5:0.18439716 6:0.52309984 7:0.28595042 8:0.37037036 
-1.0 1:0.0 2:0.5477387 3:0.72131145 4:0.3030303 5:0.0 6:0.48435172 7:0.3533058 8:0.4691358 
-1.0 1:0.3529412 2:0.67336684 3:0.6557377 4:0.37373737 5:0.43735224 6:0.6885246 7:0.098347105 8:0.56790125 
1.0 1:0.0 2:0.80904526 3:0.40983605 4:0.0 5:0.0 6:0.32637855 7:0.104958676 8:0.80246913 
0.5118862463506052 1:0.3529412 2:0.49748743 3:0.4918033 4:0.1919192 5:0.06382979 6:0.4008942 7:0.2053719 8:0.39506173 
-1.0 1:0.1764706 2:0.56281406 3:0.60655737 4:0.3030303 5:0.0 6:0.4709389 7:0.08140496 8:0.30864197 
-1.0 1:0.11764706 2:0.5025126 3:0.5409836 4:0.2020202 5:0.10638298 6:0.49031296 7:0.35826448 8:0.34567901 
1.0 1:0.05882353 2:0.5728643 3:0.5409836 4:0.36363637 5:0.23640662 6:0.5678092 7:0.11942149 8:0.25925925 
-1.0 1:0.1764706 2:0.8190955 3:0.57377046 4:0.18181819 5:0.12411348 6:0.4709389 7:0.1107438 8:0.34567901 
1.0 1:0.7058824 2:0.44221106 3:0.60655737 4:0.4040404 5:0.06382979 6:0.5260805 7:0.15619835 8:0.5925926 
1.0 1:0.23529412 2:0.5879397 3:0.52459013 4:0.27272728 5:0.14184397 6:0.4947839 7:0.09504132 8:0.2962963 
1.0 1:0.05882353 2:0.6934673 3:0.6721311 4:0.0 5:0.0 6:0.5976155 7:0.097520664 8:0.34567901 
-1.0 1:0.5882353 2:0.57788944 3:0.0 4:0.0 5:0.0 6:0.0 7:0.10785124 8:0.37037036 
-1.0 1:0.4117647 2:0.80904526 3:0.704918 4:0.0 5:0.0 6:0.45305514 7:0.06818182 8:0.5802469 
-1.0 1:0.5882353 2:0.5427136 3:0.5409836 4:0.0 5:0.0 6:0.4828614 7:0.112396695 8:0.5185185 
1.0 1:0.11764706 2:0.5527638 3:0.60655737 4:0.2929293 5:0.14775413 6:0.4828614 7:0.28842977 8:0.33333334 
1.0 1:0.3529412 2:0.4924623 3:0.47540984 4:0.33333334 5:0.2245863 6:0.5067064 7:0.17768595 8:0.5308642 
1.0 1:0.64705884 2:0.6934673 3:0.6229508 4:0.0 5:0.0 6:0.4947839 7:0.17355372 8:0.43209878 
-1.0 1:0.29411766 2:0.57788944 3:0.6229508 4:0.0 5:0.0 6:0.46497765 7:0.14173554 8:0.54320985 
-1.0 1:0.3529412 2:0.67336684 3:0.57377046 4:0.23232323 5:0.1536643 6:0.5275708 7:0.22396694 8:0.3580247 
1.0 1:0.05882353 2:0.6080402 3:0.6393443 4:0.3939394 5:0.08747045 6:0.58122206 7:0.10785124 8:0.34567901 
1.0 1:0.4117647 2:0.6231156 3:0.57377046 4:0.33333334 5:0.25413713 6:0.3800298 7:0.066528924 8:0.45679012 
1.0 1:0.47058824 2:0.63316584 3:0.72131145 4:0.36363637 5:0.12765957 6:0.57377046 7:0.14421488 8:0.60493827 
-1.0 1:0.0 2:0.81407034 3:0.6229508 4:0.56565654 5:0.11820331 6:0.7928465 7:0.31363636 8:0.30864197 
1.0 1:0.1764706 2:0.5025126 3:0.55737704 4:0.23232323 5:0.095744684 6:0.4709389 7:0.39214876 8:0.34567901 
-1.0 1:0.5294118 2:0.5125628 3:0.6229508 4:0.37373737 5:0.0 6:0.49031296 7:0.2747934 8:0.56790125 
1.0 1:0.1764706 2:0.6281407 3:0.47540984 4:0.0 5:0.0 6:0.4709389 7:0.062396694 8:0.2962963 
-1.0 1:0.0 2:0.5276382 3:0.6885246 4:0.0 5:0.0 6:0.41579732 7:0.30619836 8:0.7654321 
1.0 1:0.11764706 2:0.7889447 3:0.60655737 4:0.35353535 5:0.5200946 6:0.5871833 7:0.0553719 8:0.37037036 
1.0 1:0.23529412 2:0.60301507 3:0.55737704 4:0.0 5:0.0 6:0.44113263 7:0.29297522 8:0.41975307 
-1.0 1:0.0 2:0.8894472 3:0.4918033 4:0.2929293 5:0.5650118 6:0.5156483 7:0.4429752 8:0.25925925 
1.0 1:0.05882353 2:0.6834171 3:0.60655737 4:0.5050505 5:0.24113475 6:0.55737704 7:0.16487603 8:0.2962963 
1.0 1:0.23529412 2:0.7336683 3:0.6967213 4:0.27272728 5:0.11820331 6:0.43070045 7:0.07809918 8:0.33333334 
1.0 1:0.11764706 2:0.6381909 3:0.37704918 4:0.21212122 5:0.39598107 6:0.51266766 7:0.07272727 8:0.27160493 
1.0 1:0.29411766 2:0.6633166 3:0.6557377 4:0.0 5:0.0 6:0.39940387 7:0.076859504 8:0.8518519 
-1.0 1:0.0 2:0.65829146 3:0.5409836 4:0.4040404 5:0.0 6:0.51117736 7:0.08099174 8:0.27160493 
1.0 1:0.47058824 2:0.49748743 3:0.6885246 4:0.0 5:0.0 6:0.5275708 7:0.16033058 8:0.61728394 
-1.0 1:0.11764706 2:0.8743719 3:0.72131145 4:0.37373737 5:0.14184397 6:0.6631893 7:0.26694214 8:0.2962963 
-1.0 1:0.64705884 2:0.67839193 3:0.0 4:0.0 5:0.0 6:0.77943367 7:0.23884298 8:0.49382716 
-1.0 1:0.4117647 2:0.53768843 3:0.60655737 4:0.0 5:0.0 6:0.44113263 7:0.104958676 8:0.38271606 
1.0 1:0.29411766 2:0.69849247 3:0.52459013 4:0.35353535 5:0.16548464 6:0.4262295 7:0.16983472 8:0.32098764 
1.0 1:0.23529412 2:0.6432161 3:0.57377046 4:0.0 5:0.0 6:0.51117736 7:0.1252066 8:0.2962963 
-1.0 1:0.05882353 2:0.59799 3:0.704918 4:0.3939394 5:0.2600473 6:0.6795827 7:0.3338843 8:0.3580247 
1.0 1:0.5882353 2:0.57788944 3:0.0 4:0.0 5:0.0 6:0.5260805 7:0.0553719 8:0.3580247 
1.0 1:0.0 2:0.5879397 3:0.0 4:0.0 5:0.0 6:0.50372577 7:0.38512397 8:0.54320985 
-1.0 1:0.05882353 2:0.6683417 3:0.8360656 4:0.28282827 5:0.16548464 6:0.48882264 7:0.096694216 8:0.5555556 
1.0 1:0.0 2:0.59799 3:0.52459013 4:0.18181819 5:0.10874704 6:0.52011925 7:0.29958677 8:0.28395063 
1.0 1:0.23529412 2:0.5929648 3:0.57377046 4:0.0 5:0.0 6:0.6631893 7:0.37355372 8:0.32098764 
1.0 1:0.4117647 2:0.6683417 3:0.6885246 4:0.0 5:0.0 6:0.59910583 7:0.28760332 8:0.45679012 
1.0 1:0.29411766 2:0.71859294 3:0.6393443 4:0.0 5:0.0 6:0.6706408 7:0.0785124 8:0.5802469 
1.0 1:0.05882353 2:0.59799 3:0.36065573 4:0.47474748 5:0.07446808 6:0.5290611 7:0.11570248 8:0.30864197 
-1.0 1:0.0 2:0.7035176 3:0.5327869 4:0.26262626 5:0.1536643 6:0.63487333 7:0.17809917 8:0.2962963 
-1.0 1:0.05882353 2:0.9045226 3:0.0 4:0.0 5:0.0 6:0.6453055 7:0.11652893 8:0.50617284 
1.0 1:0.5294118 2:0.6231156 3:0.57377046 4:0.33333334 5:0.47517732 6:0.5275708 7:0.11652893 8:0.41975307 
-1.0 1:0.3529412 2:0.6231156 3:0.59016395 4:0.0 5:0.0 6:0.41132638 7:0.15206611 8:0.3580247 
-1.0 1:0.0 2:0.6080402 3:0.5409836 4:0.3030303 5:0.19503546 6:0.51117736 7:0.0838843 8:0.4074074 
-1.0 1:0.23529412 2:0.61809045 3:0.5081967 4:0.0 5:0.0 6:0.47690016 7:0.09338843 8:0.43209878 
-1.0 1:0.0 2:0.5929648 3:0.6885246 4:0.47474748 5:0.2718676 6:0.68256336 7:0.22768594 8:0.38271606 
1.0 1:0.47058824 2:0.42211056 3:0.60655737 4:0.3131313 5:0.0 6:0.5707899 7:0.18884298 8:0.4814815 
-1.0 1:0.5294118 2:0.8291457 3:0.72131145 4:0.0 5:0.0 6:0.45305514 7:0.12479339 8:0.60493827 
1.0 1:0.11764706 2:0.60301507 3:0.44262296 4:0.0 5:0.0 6:0.39940387 7:0.18801653 8:0.33333334 
1.0 1:0.5882353 2:0.81407034 3:0.6885246 4:0.0 5:0.0 6:0.4128167 7:0.075206615 8:0.6666667 
-1.0 1:0.3529412 2:0.5125628 3:0.6721311 4:0.0 5:0.0 6:0.45901638 7:0.07438017 8:0.44444445 
-1.0 1:0.05882353 2:0.47738692 3:0.6721311 4:0.25252524 5:0.21276596 6:0.52160954 7:0.09628099 8:0.5308642 
-1.0 1:0.47058824 2:0.60301507 3:0.704918 4:0.0 5:0.0 6:0.4232489 7:0.1070248 8:0.27160493 
-1.0 1:0.0 2:0.90954775 3:0.72131145 4:0.44444445 5:0.6028369 6:0.6453055 7:0.091735534 8:0.32098764 
-1.0 1:0.05882353 2:0.6432161 3:0.39344263 4:0.45454547 5:0.22931442 6:0.6035768 7:0.2533058 8:0.2962963 
1.0 1:0.1764706 2:0.6432161 3:0.6393443 4:0.0 5:0.0 6:0.31445605 7:0.1107438 8:0.67901236 
1.0 1:0.4117647 2:0.6834171 3:0.60655737 4:0.26262626 5:0.15957446 6:0.38748136 7:0.26735538 8:0.6296296 
-1.0 1:0.4117647 2:0.51758796 3:0.5409836 4:0.32323232 5:0.0 6:0.58271235 7:0.14214876 8:0.38271606 
-1.0 1:0.0 2:0.47738692 3:0.6967213 4:0.25252524 5:0.04255319 6:0.55737704 7:0.102066115 8:0.2962963 
1.0 1:0.64705884 2:0.42713568 3:0.60655737 4:0.0 5:0.0 6:0.4485842 7:0.12396694 8:0.43209878 
-1.0 1:0.29411766 2:0.81407034 3:0.852459 4:0.0 5:0.0 6:0.561848 7:0.062396694 8:0.6419753 
-1.0 1:0.1764706 2:0.7085427 3:0.0 4:0.0 5:0.0 6:0.4470939 7:0.3144628 8:0.33333334 
-1.0 1:0.29411766 2:0.57788944 3:0.8032787 4:0.0 5:0.0 6:0.78837556 7:0.086363636 8:0.34567901 
1.0 1:0.23529412 2:0.77386934 3:0.59016395 4:0.2929293 5:0.14893617 6:0.46646795 7:0.13966942 8:0.45679012 
1.0 1:0.0 2:0.7386935 3:0.6967213 4:0.54545456 5:0.0 6:0.6378539 7:0.15495868 8:0.2962963 
1.0 1:0.47058824 2:0.53768843 3:0.6557377 4:0.0 5:0.0 6:0.366617 7:0.353719 8:0.41975307 
-1.0 1:0.05882353 2:0.90954775 3:0.52459013 4:0.3030303 5:0.21276596 6:0.5081967 7:0.13553719 8:0.4691358 
1.0 1:0.3529412 2:0.8291457 3:0.55737704 4:0.26262626 5:0.19858156 6:0.5007452 7:0.2607438 8:0.60493827 
-1.0 1:0.4117647 2:0.4874372 3:0.6229508 4:0.32323232 5:0.10756501 6:0.609538 7:0.35991734 8:0.39506173 
1.0 1:0.05882353 2:0.59799 3:0.72131145 4:0.41414142 5:0.20094563 6:0.6751118 7:0.20950413 8:0.32098764 
1.0 1:0.05882353 2:0.60301507 3:0.6557377 4:0.4848485 5:0.23640662 6:0.57973176 7:0.4801653 8:0.50617284 
1.0 1:0.11764706 2:0.56281406 3:0.6393443 4:0.5050505 5:0.16548464 6:0.5871833 7:0.07231405 8:0.2962963 
1.0 1:0.0 2:0.5025126 3:0.72131145 4:0.6060606 5:0.13002364 6:0.6974665 7:0.39752066 8:0.38271606 
1.0 1:0.05882353 2:0.7336683 3:0.45901638 4:0.0 5:0.0 6:0.44262296 7:0.23305786 8:0.3580247 
-1.0 1:0.3529412 2:0.7386935 3:0.6557377 4:0.0 5:0.0 6:0.4396423 7:0.07355372 8:0.61728394 
1.0 1:0.0 2:0.67839193 3:0.7704918 4:0.46464646 5:0.1713948 6:0.6050671 7:0.11735537 8:0.32098764 
1.0 1:0.11764706 2:0.56281406 3:0.704918 4:0.42424244 5:0.1891253 6:0.57228017 7:0.10165289 8:0.34567901 
1.0 1:0.3529412 2:0.5427136 3:0.36065573 4:0.2020202 5:0.1536643 6:0.3576751 7:0.3359504 8:0.43209878 
1.0 1:0.1764706 2:0.55778897 3:0.47540984 4:0.3131313 5:0.052009456 6:0.4396423 7:0.17768595 8:0.27160493 
1.0 1:0.05882353 2:0.69849247 3:0.5081967 4:0.41414142 5:0.5673759 6:0.60655737 7:0.2214876 8:0.25925925 
1.0 1:0.3529412 2:0.8341709 3:0.60655737 4:0.0 5:0.0 6:0.39642325 7:0.12561983 8:0.8148148 
-1.0 1:0.5882353 2:0.74371856 3:0.6885246 4:0.4848485 5:0.28014183 6:0.5603577 7:0.41363636 8:0.6296296 
-1.0 1:0.11764706 2:0.5427136 3:0.6557377 4:0.0 5:0.0 6:0.4023845 7:0.1070248 8:0.6419753 
1.0 1:0.29411766 2:0.79396987 3:0.57377046 4:0.0 5:0.0 6:0.44411325 7:0.08553719 8:0.7777778 
1.0 1:0.29411766 2:0.6834171 3:0.6721311 4:0.0 5:0.0 6:0.0 7:0.2644628 8:0.8518519 
-1.0 1:0.4117647 2:0.75376886 3:0.6393443 4:0.2929293 5:0.14893617 6:0.52459013 7:0.28595042 8:0.6666667 
1.0 1:0.23529412 2:0.7085427 3:0.60655737 4:0.0 5:0.0 6:0.41132638 7:0.10082645 8:0.49382716 
1.0 1:0.05882353 2:0.51758796 3:0.24590164 4:0.3838384 5:0.098108746 6:0.6453055 7:0.07561983 8:0.4074074 
-1.0 1:0.29411766 2:0.56281406 3:0.5409836 4:0.0 5:0.0 6:0.5633383 7:0.10785124 8:0.50617284 
1.0 1:0.29411766 2:0.5879397 3:0.75409836 4:0.0 5:0.0 6:0.5081967 7:0.1392562 8:0.4691358 
-1.0 1:0.47058824 2:0.6231156 3:0.6229508 4:0.24242425 5:0.7092199 6:0.42771983 7:0.2838843 8:0.6419753 
-1.0 1:0.23529412 2:0.8592965 3:0.59016395 4:0.0 5:0.0 6:0.64977646 7:0.19793388 8:0.32098764 
1.0 1:0.11764706 2:0.5477387 3:0.75409836 4:0.0 5:0.0 6:0.6363636 7:0.34917355 8:0.6666667 
1.0 1:0.1764706 2:0.5678392 3:0.40983605 4:0.1010101 5:0.100472815 6:0.4396423 7:0.2586777 8:0.30864197 
-1.0 1:0.23529412 2:0.7336683 3:0.75409836 4:0.0 5:0.0 6:0.46497765 7:0.22272727 8:0.75308645 
-1.0 1:0.1764706 2:0.91457283 3:0.60655737 4:0.0 5:0.0 6:0.45454547 7:0.14256199 8:0.3580247 
1.0 1:0.5294118 2:0.67336684 3:0.60655737 4:0.33333334 5:0.07092199 6:0.38599107 7:0.19008264 8:1.0 
1.0 1:0.23529412 2:0.98994976 3:0.57377046 4:0.3939394 5:0.8794326 6:0.54694486 7:0.9623967 8:0.38271606 
-1.0 1:0.4117647 2:0.92462313 3:0.6885246 4:0.33333334 5:0.0 6:0.5290611 7:0.14669421 8:0.50617284 
1.0 1:0.05882353 2:0.6231156 3:0.4918033 4:0.32323232 5:0.0 6:0.533532 7:0.2123967 8:0.25925925 
1.0 1:0.23529412 2:0.75879395 3:0.73770493 4:0.3838384 5:0.0 6:0.44262296 7:0.1214876 8:0.44444445 
1.0 1:0.29411766 2:0.5879397 3:0.704918 4:0.3030303 5:0.12411348 6:0.58271235 7:0.10371901 8:0.5185185 
-1.0 1:0.3529412 2:0.9748744 3:0.6393443 4:0.0 5:0.0 6:0.35022354 7:0.053305786 8:0.72839504 
-1.0 1:0.3529412 2:0.59799 3:0.40983605 4:0.22222222 5:0.20803782 6:0.4038748 7:0.5446281 8:0.4074074 
-1.0 1:0.4117647 2:0.7638191 3:0.72131145 4:0.44444445 5:0.0 6:0.74515647 7:0.1392562 8:0.44444445 
-1.0 1:0.0 2:0.6231156 3:0.57377046 4:0.2020202 5:0.0 6:0.40834576 7:0.104958676 8:0.44444445 
-1.0 1:0.05882353 2:0.94974875 3:0.4918033 4:0.23232323 5:1.0 6:0.4485842 7:0.1644628 8:0.72839504 
1.0 1:0.5294118 2:0.77386934 3:0.6393443 4:0.3030303 5:0.11820331 6:0.4605067 7:0.067768596 8:0.5555556 
-1.0 1:0.05882353 2:0.6281407 3:0.40983605 4:0.4040404 5:0.19739953 6:0.4962742 7:0.39752066 8:0.34567901 
-1.0 1:0.47058824 2:0.6683417 3:0.59016395 4:0.0 5:0.0 6:0.49031296 7:0.11157025 8:0.4814815 
1.0 1:0.47058824 2:0.9748744 3:0.6557377 4:0.0 5:0.0 6:0.3889717 7:0.22768594 8:0.8271605 
-0.2678337360352339 1:0.4117647 2:0.9396985 3:0.55737704 4:0.3939394 5:0.35933807 6:0.561848 7:0.104958676 8:0.50617284 
-1.0 1:0.05882353 2:0.7487437 3:0.55737704 4:0.2929293 5:0.1501182 6:0.4366617 7:0.14421488 8:0.5185185 
-1.0 1:0.7647059 2:0.6482412 3:0.0 4:0.3030303 5:0.0 6:0.5946349 7:0.23512396 8:0.54320985 
1.0 1:0.11764706 2:0.56281406 3:0.55737704 4:0.22222222 5:0.11111111 6:0.5081967 7:0.1301653 8:0.32098764 
1.0 1:0.11764706 2:0.6482412 3:0.6885246 4:0.0 5:0.0 6:0.41728762 7:0.11735537 8:0.33333334 
-1.0 1:0.5294118 2:0.7839196 3:0.704918 4:0.28282827 5:0.18321513 6:0.51117736 7:0.4913223 8:0.5185185 
-1.0 1:0.29411766 2:0.42713568 3:0.60655737 4:0.22222222 5:0.0 6:0.43219075 7:0.5057851 8:0.39506173 
1.0 1:0.47058824 2:0.47738692 3:0.59016395 4:0.0 5:0.0 6:0.54843515 7:0.20041323 8:0.7037037 
-1.0 1:0.05882353 2:0.9849246 3:0.6229508 4:0.36363637 5:0.29432625 6:0.5439642 7:0.36157024 8:0.3580247 
-1.0 1:0.47058824 2:0.8844221 3:0.73770493 4:0.34343433 5:0.35460994 6:0.5022355 7:0.19297521 8:0.7160494 
1.0 1:0.29411766 2:0.7386935 3:0.6393443 4:0.0 5:0.0 6:0.5022355 7:0.090082645 8:0.80246913 
-1.0 1:0.47058824 2:0.71859294 3:0.5409836 4:0.0 5:0.0 6:0.52011925 7:0.053305786 8:0.50617284 
1.0 1:0.4117647 2:0.5728643 3:0.6229508 4:0.17171717 5:0.13002364 6:0.3546945 7:0.19256198 8:0.38271606 
1.0 1:0.7058824 2:0.7035176 3:0.6967213 4:0.33333334 5:0.0 6:0.55737704 7:0.10082645 8:0.50617284 
1.0 1:0.11764706 2:0.61809045 3:0.39344263 4:0.32323232 5:0.19503546 6:0.62742174 7:0.21487603 8:0.32098764 
1.0 1:0.5294118 2:0.60301507 3:0.59016395 4:0.22222222 5:0.06619386 6:0.3099851 7:0.30289257 8:0.5925926 
1.0 1:0.29411766 2:0.61809045 3:0.60655737 4:0.4040404 5:0.091016546 6:0.5081967 7:0.11115702 8:0.34567901 
1.0 1:0.1764706 2:0.74371856 3:0.5409836 4:0.25252524 5:0.0 6:0.48435172 7:0.105785124 8:0.27160493 
1.0 1:0.11764706 2:0.6130653 3:0.57377046 4:0.27272728 5:0.0 6:0.54843515 7:0.14049587 8:0.33333334 
1.0 1:0.7058824 2:0.53266335 3:0.6557377 4:0.0 5:0.0 6:0.35171387 7:0.05661157 8:0.54320985 
-1.0 1:0.64705884 2:0.6934673 3:0.60655737 4:0.26262626 5:0.17021276 6:0.53800297 7:0.23016529 8:0.61728394 
1.0 1:0.05882353 2:0.7236181 3:0.6721311 4:0.4040404 5:0.0 6:0.61549926 7:0.25082645 8:0.34567901 
1.0 1:0.11764706 2:0.879397 3:0.72131145 4:0.0 5:0.0 6:0.34128168 7:0.13471074 8:0.27160493 
-1.0 1:0.47058824 2:0.83919597 3:0.86885244 4:0.46464646 5:0.27304965 6:0.5603577 7:0.06818182 8:0.5308642 
-1.0 1:0.47058824 2:0.75879395 3:0.6393443 4:0.32323232 5:0.24822696 6:0.6393443 7:0.21322314 8:0.44444445 
-1.0 1:0.3529412 2:0.0 3:0.55737704 4:0.41414142 5:0.0 6:0.58122206 7:0.30041322 8:0.50617284 
1.0 1:0.4117647 2:0.71356785 3:0.4918033 4:0.33333334 5:0.2245863 6:0.42921013 7:0.2838843 8:0.75308645 
1.0 1:0.11764706 2:0.71356785 3:0.6721311 4:0.18181819 5:0.07565012 6:0.3681073 7:0.3144628 8:0.25925925 
1.0 1:0.11764706 2:0.6080402 3:0.57377046 4:0.32323232 5:0.11229315 6:0.58271235 7:0.3661157 8:0.28395063 
1.0 1:0.5294118 2:0.61809045 3:0.57377046 4:0.44444445 5:0.11111111 6:0.49329358 7:0.15454546 8:0.49382716 
-1.0 1:0.0 2:0.6934673 3:0.4918033 4:0.35353535 5:0.19739953 6:0.5156483 7:0.22066116 8:0.25925925 
-1.0 1:0.0 2:0.53768843 3:0.5081967 4:0.3030303 5:0.08747045 6:0.54545456 7:0.3128099 8:0.30864197 
1.0 1:0.1764706 2:0.79396987 3:0.52459013 4:0.13131313 5:0.4574468 6:0.46497765 7:0.12190083 8:0.2962963 
1.0 1:0.0 2:0.7638191 3:0.6721311 4:0.3939394 5:0.321513 6:0.6184799 7:0.11157025 8:0.33333334 
1.0 1:0.5294118 2:0.53266335 3:0.4262295 4:0.0 5:0.0 6:0.46497765 7:0.1570248 8:0.5185185 
-1.0 1:0.4117647 2:0.9798995 3:0.57377046 4:0.33333334 5:0.1713948 6:0.37406856 7:0.06735537 8:0.67901236 
-1.0 1:0.47058824 2:0.919598 3:0.52459013 4:0.0 5:0.0 6:0.34724292 7:0.27768594 8:0.39506173 
1.0 1:0.47058824 2:0.56281406 3:0.59016395 4:0.0 5:0.0 6:0.35171387 7:0.34710744 8:0.7160494 
-1.0 1:0.1764706 2:0.6482412 3:0.75409836 4:0.4949495 5:0.18321513 6:0.5424739 7:0.4 8:0.39506173 
-1.0 1:0.5294118 2:0.6130653 3:0.45901638 4:0.0 5:0.0 6:0.4962742 7:0.46033058 8:0.4074074 
1.0 1:0.3529412 2:0.6482412 3:0.73770493 4:0.07070707 5:0.38534278 6:0.29210135 7:0.24049586 8:0.7407407 
1.0 1:0.0 2:0.68844223 3:0.57377046 4:0.3838384 5:0.0 6:0.4947839 7:0.07024793 8:0.27160493 
1.0 1:0.05882353 2:0.7889447 3:0.59016395 4:0.21212122 5:0.19858156 6:0.38152012 7:0.050826445 8:0.2962963 
-1.0 1:0.23529412 2:0.71356785 3:0.704918 4:0.0 5:0.0 6:0.6557377 7:0.26652893 8:0.27160493 
-1.0 1:0.23529412 2:0.919598 3:0.0 4:0.0 5:0.0 6:0.4232489 7:0.08760331 8:0.44444445 
1.0 1:0.4117647 2:0.6683417 3:0.72131145 4:0.15151516 5:0.18321513 6:0.4828614 7:0.10826446 8:0.45679012 
1.0 1:0.29411766 2:0.53266335 3:0.6721311 4:0.3030303 5:0.0 6:0.58867365 7:0.11818182 8:0.4691358 
1.0 1:0.11764706 2:0.60301507 3:0.6229508 4:0.37373737 5:0.12411348 6:0.59165424 7:0.08884297 8:0.3580247 
-1.0 1:0.47058824 2:0.6281407 3:0.78688526 4:0.0 5:0.0 6:0.0 7:0.09586777 8:0.6666667 
1.0 1:0.05882353 2:0.65829146 3:0.52459013 4:0.14141414 5:0.49054372 6:0.35320416 7:0.1607438 8:0.25925925 
-1.0 1:0.0 2:0.99497485 3:0.5409836 4:0.32323232 5:0.32387707 6:0.61549926 7:0.20743802 8:0.34567901 
1.0 1:0.29411766 2:0.49748743 3:0.44262296 4:0.28282827 5:0.098108746 6:0.5067064 7:0.20619835 8:0.37037036 
1.0 1:0.11764706 2:0.6381909 3:0.47540984 4:0.24242425 5:0.32505912 6:0.4128167 7:0.661157 8:0.30864197 
1.0 1:0.7647059 2:0.72864324 3:0.6721311 4:0.1919192 5:0.13002364 6:0.33084947 7:0.10123967 8:0.7037037 
1.0 1:0.05882353 2:0.69849247 3:0.37704918 4:0.1919192 5:0.098108746 6:0.42771983 7:0.27024794 8:0.27160493 
1.0 1:0.29411766 2:0.6130653 3:0.704918 4:0.0 5:0.0 6:0.5171386 7:0.11983471 8:0.4074074 
-1.0 1:0.1764706 2:0.86934674 3:0.6885246 4:0.33333334 5:0.56028366 6:0.5320417 7:0.10661157 8:0.27160493 
1.0 1:0.05882353 2:0.75879395 3:0.4918033 4:0.0 5:0.0 6:0.3889717 7:0.07396694 8:0.27160493 
1.0 1:0.1764706 2:0.9045226 3:0.52459013 4:0.25252524 5:0.08274232 6:0.5067064 7:0.11198347 8:0.32098764 
1.0 1:0.5882353 2:0.6683417 3:0.55737704 4:0.0 5:0.0 6:0.4023845 7:0.10123967 8:0.44444445 
-1.0 1:0.5882353 2:0.80904526 3:0.55737704 4:0.23232323 5:0.15602838 6:0.3800298 7:0.13471074 8:0.5802469 
-1.0 1:0.11764706 2:0.98994976 3:0.57377046 4:0.45454547 5:0.641844 6:0.45454547 7:0.06528926 8:0.654321 
1.0 1:0.1764706 2:0.6231156 3:0.6557377 4:0.33333334 5:0.1536643 6:0.4947839 7:0.12603305 8:0.32098764 
1.0 1:0.4117647 2:0.68844223 3:0.73770493 4:0.41414142 5:0.0 6:0.47690016 7:0.16157025 8:0.4814815 
-0.29130175408483033 1:0.11764706 2:0.98994976 3:0.57377046 4:1.0 5:0.0 6:0.5171386 7:0.2376033 8:0.7654321 
-1.0 1:0.0 2:0.9045226 3:0.5409836 4:0.3939394 5:0.0 6:0.62593144 7:0.7822314 8:0.30864197 
-1.0 1:0.1764706 2:0.85427135 3:0.52459013 4:0.37373737 5:0.26595744 6:0.51415795 7:0.14710744 8:0.37037036 
1.0 1:0.11764706 2:0.6482412 3:0.60655737 4:0.26262626 5:0.24231678 6:0.4947839 7:0.24421488 8:0.30864197 
-1.0 1:0.0 2:0.61809045 3:0.59016395 4:0.0 5:0.0 6:0.5409836 7:0.10661157 8:0.6419753 
-1.0 1:0.5882353 2:0.8442211 3:0.60655737 4:0.0 5:0.0 6:0.5663189 7:0.22190082 8:0.41975307 
1.0 1:0.11764706 2:0.7085427 3:0.47540984 4:0.34343433 5:0.15130024 6:0.3785395 7:0.28884298 8:0.2962963 
1.0 1:0.1764706 2:0.959799 3:0.55737704 4:0.15151516 5:0.1536643 6:0.4605067 7:0.123553716 8:0.41975307 
-1.0 1:0.05882353 2:0.7386935 3:0.7704918 4:0.41414142 5:0.0 6:0.7347243 7:0.14793389 8:0.33333334 
-1.0 1:0.3529412 2:0.81407034 3:0.5081967 4:0.0 5:0.0 6:0.36214605 7:0.07355372 8:0.61728394 
1.0 1:0.05882353 2:0.7035176 3:0.60655737 4:0.26262626 5:0.21276596 6:0.35916543 7:0.34214875 8:0.28395063 
1.0 1:0.05882353 2:0.40703517 3:0.60655737 4:0.41414142 5:0.06737588 6:0.6900149 7:0.45289257 8:0.39506173 
1.0 1:0.29411766 2:0.5829146 3:0.60655737 4:0.0 5:0.0 6:0.38152012 7:0.08305785 8:0.37037036 
1.0 1:0.11764706 2:0.59799 3:0.0 4:0.0 5:0.0 6:0.29210135 7:0.34380165 8:0.8888889 
-1.0 1:0.47058824 2:0.60301507 3:0.0 4:0.0 5:0.0 6:0.4470939 7:0.07561983 8:0.4691358 
1.0 1:0.29411766 2:0.63316584 3:0.6393443 4:0.27272728 5:0.026004728 6:0.44113263 7:0.18140496 8:0.49382716 
-1.0 1:0.05882353 2:0.5879397 3:0.72131145 4:0.24242425 5:0.1713948 6:0.51415795 7:0.16652893 8:0.49382716 
1.0 1:0.29411766 2:0.51758796 3:0.8852459 4:0.37373737 5:0.0 6:0.5842027 7:0.12603305 8:0.80246913 
1.0 1:0.1764706 2:0.6532663 3:0.52459013 4:0.0 5:0.0 6:0.3442623 7:0.12975207 8:0.27160493 
-1.0 1:0.5294118 2:0.56281406 3:0.6721311 4:0.24242425 5:0.0 6:0.42026827 7:0.5297521 8:0.61728394 
-1.0 1:0.8235294 2:0.5025126 3:0.6393443 4:0.25252524 5:0.21749409 6:0.54545456 7:0.17024793 8:0.56790125 
1.0 1:0.3529412 2:0.7236181 3:0.59016395 4:0.27272728 5:0.26950353 6:0.5052161 7:0.1053719 8:0.49382716 
1.0 1:0.29411766 2:0.7788945 3:0.6885246 4:0.44444445 5:0.644208 6:0.5767511 7:0.25578514 8:0.41975307 
1.0 1:0.7058824 2:0.6080402 3:0.6393443 4:0.17171717 5:0.0 6:0.39493293 7:0.1070248 8:0.7654321 
1.0 1:0.5882353 2:0.69849247 3:0.6557377 4:0.0 5:0.0 6:0.4038748 7:0.5954546 8:0.7037037 
-1.0 1:0.64705884 2:0.6834171 3:0.6885246 4:0.35353535 5:0.1536643 6:0.42175856 7:0.10743801 8:0.5185185 
-1.0 1:0.23529412 2:0.5477387 3:0.52459013 4:0.44444445 5:0.11702128 6:0.5186289 7:0.37396693 8:0.32098764 
-1.0 1:0.0 2:0.7336683 3:0.57377046 4:0.0 5:0.0 6:0.56482863 7:0.13801652 8:0.34567901 
-1.0 1:0.23529412 2:0.6281407 3:0.6557377 4:0.0 5:0.0 6:0.48137107 7:0.2214876 8:0.33333334 
1.0 1:0.29411766 2:0.47738692 3:0.59016395 4:0.33333334 5:0.0 6:0.561848 7:0.15289256 8:0.33333334 
1.0 1:0.4117647 2:0.5125628 3:0.60655737 4:0.4040404 5:0.12411348 6:0.55439645 7:0.08429752 8:0.5555556 
1.0 1:0.0 2:0.61809045 3:0.72131145 4:0.37373737 5:0.0 6:0.52459013 7:0.08140496 8:0.3580247 
1.0 1:0.05882353 2:0.71859294 3:0.60655737 4:0.22222222 5:0.07210402 6:0.390462 7:0.105785124 8:0.25925925 
1.0 1:0.0 2:0.5879397 3:0.6557377 4:0.3131313 5:0.06264775 6:0.6736215 7:0.03677686 8:0.2962963 
1.0 1:0.11764706 2:0.5025126 3:0.44262296 4:0.28282827 5:0.12411348 6:0.5633383 7:0.20578513 8:0.2962963 
-1.0 1:0.23529412 2:0.6281407 3:0.57377046 4:0.18181819 5:0.14420804 6:0.43070045 7:0.47272727 8:0.5555556 
1.0 1:0.4117647 2:0.6834171 3:0.73770493 4:0.0 5:0.0 6:0.44560358 7:0.08677686 8:0.61728394 
-1.0 1:0.0 2:0.83919597 3:0.0 4:0.0 5:0.0 6:0.48137107 7:0.3466942 8:0.37037036 
1.0 1:0.11764706 2:0.6482412 3:0.0 4:0.0 5:0.0 6:0.57377046 7:0.12561983 8:0.50617284 
-1.0 1:0.5294118 2:0.6532663 3:0.57377046 4:0.0 5:0.0 6:0.509687 7:0.2694215 8:0.5555556 
-1.0 1:0.0 2:0.68844223 3:0.32786885 4:0.35353535 5:0.19858156 6:0.64232486 7:0.94545454 8:0.4074074 
-1.0 1:0.3529412 2:0.6281407 3:0.6229508 4:0.0 5:0.0 6:0.50372577 7:0.05 8:0.6666667 
-1.0 1:0.23529412 2:0.86934674 3:0.57377046 4:0.14141414 5:0.19858156 6:0.44262296 7:0.14917356 8:0.4074074 
1.0 1:0.23529412 2:0.5829146 3:0.59016395 4:0.121212125 5:0.10283688 6:0.32935917 7:0.19132231 8:0.45679012 
-1.0 1:0.0 2:0.75879395 3:0.73770493 4:0.46464646 5:0.0 6:0.62742174 7:0.15330578 8:0.25925925 
-1.0 1:0.3529412 2:0.9798995 3:0.57377046 4:0.0 5:0.0 6:0.4605067 7:0.13553719 8:0.38271606 
1.0 1:0.11764706 2:0.6130653 3:0.6229508 4:0.27272728 5:0.23640662 6:0.5350224 7:0.19958678 8:0.32098764 
-1.0 1:0.5294118 2:0.56281406 3:0.6721311 4:0.32323232 5:0.20685579 6:0.509687 7:0.10743801 8:0.44444445 
1.0 1:0.11764706 2:0.6281407 3:0.4918033 4:0.2020202 5:0.16548464 6:0.50372577 7:0.036363635 8:0.38271606 
-1.0 1:0.1764706 2:0.8592965 3:0.59016395 4:0.33333334 5:0.15957446 6:0.4962742 7:0.0822314 8:0.2962963 
1.0 1:0.5882353 2:0.6130653 3:0.55737704 4:0.0 5:0.0 6:0.46497765 7:0.10661157 8:0.50617284 
-1.0 1:0.0 2:0.72864324 3:0.0 4:0.0 5:0.0 6:0.65871835 7:0.2603306 8:0.38271606 
-1.0 1:0.23529412 2:0.67336684 3:0.59016395 4:0.0 5:0.0 6:0.3546945 7:0.11446281 8:0.7407407 
-1.0 1:0.1764706 2:0.8743719 3:0.47540984 4:0.22222222 5:0.22931442 6:0.49031296 7:0.24504133 8:0.44444445 
-1.0 1:0.05882353 2:0.7236181 3:0.6721311 4:0.46464646 5:0.21276596 6:0.68703425 7:0.13842975 8:0.56790125 
1.0 1:0.0 2:0.6633166 3:0.6393443 4:0.0 5:0.0 6:0.4828614 7:0.1623967 8:0.25925925 
-1.0 1:0.29411766 2:0.0 3:0.6557377 4:0.32323232 5:0.0 6:0.6110283 7:0.14297521 8:0.45679012 
-1.0 1:0.7058824 2:0.75879395 3:0.57377046 4:0.4040404 5:0.32033098 6:0.6229508 7:0.30661157 8:0.4691358 
-1.0 1:0.7647059 2:0.52261305 3:0.59016395 4:0.0 5:0.0 6:0.46497765 7:0.19214876 8:0.4691358 
-1.0 1:0.7647059 2:0.63316584 3:0.73770493 4:0.0 5:0.0 6:0.6467958 7:0.24090908 8:0.5185185 
-1.0 1:0.47058824 2:0.5427136 3:0.57377046 4:0.0 5:0.0 6:0.45454547 7:0.3946281 8:0.4074074 
1.0 1:0.47058824 2:0.63316584 3:0.60655737 4:0.3838384 5:0.088652484 6:0.38599107 7:0.06694215 8:0.4814815 
-1.0 1:0.23529412 2:0.7236181 3:0.6721311 4:0.32323232 5:0.0 6:0.57377046 7:0.22892562 8:0.45679012 
1.0 1:0.23529412 2:0.7386935 3:0.60655737 4:0.25252524 5:0.3463357 6:0.52011925 7:0.1590909 8:0.37037036 
1.0 1:0.4117647 2:0.40703517 3:0.6393443 4:0.4040404 5:0.056737587 6:0.69597614 7:0.10785124 8:0.5185185 
-1.0 1:0.4117647 2:0.5728643 3:0.5409836 4:0.0 5:0.0 6:0.48882264 7:0.10661157 8:0.5185185 
1.0 1:0.0 2:0.68844223 3:0.55737704 4:0.14141414 5:0.1749409 6:0.3695976 7:0.05909091 8:0.25925925 
-1.0 1:0.05882353 2:0.86934674 3:0.60655737 4:0.0 5:0.0 6:0.54843515 7:0.036363635 8:0.4691358 
1.0 1:0.4117647 2:0.4723618 3:0.52459013 4:0.25252524 5:0.093380615 6:0.4962742 7:0.30495867 8:0.50617284 
1.0 1:0.05882353 2:0.67839193 3:0.44262296 4:0.0 5:0.0 6:0.39791358 7:0.2838843 8:0.7654321 
1.0 1:0.05882353 2:0.4321608 3:0.5409836 4:0.5252525 5:0.07683215 6:0.61549926 7:0.37892562 8:0.3580247 
-1.0 1:0.23529412 2:0.79396987 3:0.6393443 4:0.0 5:0.0 6:0.49031296 7:0.3318182 8:0.38271606 
-1.0 1:0.23529412 2:0.5879397 3:0.5081967 4:0.121212125 5:0.0 6:0.44262296 7:0.1570248 8:0.37037036 
-1.0 1:0.0 2:0.8994975 3:0.40983605 4:0.36363637 5:0.18794326 6:0.5633383 7:0.18801653 8:0.27160493 
1.0 1:0.0 2:0.63316584 3:0.6885246 4:0.2929293 5:0.25413713 6:0.4575261 7:0.21487603 8:0.2962963 
-1.0 1:0.5294118 2:0.72864324 3:0.72131145 4:0.34343433 5:0.19503546 6:0.45156482 7:0.31859505 8:0.654321 
1.0 1:0.3529412 2:0.919598 3:0.7704918 4:0.0 5:0.0 6:0.60804766 7:0.603719 8:0.5555556 
1.0 1:0.29411766 2:0.5427136 3:0.59016395 4:0.43434343 5:0.088652484 6:0.53800297 7:0.108677685 8:0.4074074 
-1.0 1:0.4117647 2:0.53266335 3:0.4918033 4:0.24242425 5:0.0 6:0.39493293 7:0.12231405 8:0.3580247 
1.0 1:0.11764706 2:0.5025126 3:0.57377046 4:0.5252525 5:0.06737588 6:0.6035768 7:0.27975208 8:0.30864197 
-1.0 1:0.1764706 2:0.6532663 3:0.6393443 4:0.23232323 5:0.093380615 6:0.4232489 7:0.13347107 8:0.41975307 
1.0 1:0.7647059 2:0.76884425 3:0.72131145 4:0.37373737 5:0.16548464 6:0.6050671 7:0.48512396 8:0.4814815 
1.0 1:0.4117647 2:0.8994975 3:0.77868855 4:0.3131313 5:0.0 6:0.509687 7:0.067768596 8:0.7407407 
-1.0 1:0.1764706 2:0.6633166 3:0.6557377 4:0.0 5:0.0 6:0.51266766 7:0.1661157 8:0.54320985 
1.0 1:0.23529412 2:0.61809045 3:0.6557377 4:0.15151516 5:0.20803782 6:0.47690016 7:0.18305784 8:0.41975307 
1.0 1:0.23529412 2:0.4522613 3:0.0 4:0.0 5:0.0 6:0.41728762 7:0.2520661 8:0.38271606 
0.8634030604330075 1:0.11764706 2:0.46231157 3:0.6229508 4:0.2020202 5:0.0 6:0.36065573 7:0.7016529 8:0.34567901 
1.0 1:0.11764706 2:0.6130653 3:0.4918033 4:0.18181819 5:0.1252955 6:0.44411325 7:0.29628098 8:0.27160493 
1.0 1:0.23529412 2:0.5527638 3:0.75409836 4:0.0 5:0.0 6:0.5603577 7:0.07892562 8:0.37037036 
1.0 1:0.1764706 2:0.61809045 3:0.8196721 4:0.35353535 5:0.28368795 6:0.8539493 7:0.36363637 8:0.27160493 
-1.0 1:0.05882353 2:0.5678392 3:0.52459013 4:0.35353535 5:0.0 6:0.5007452 7:0.22438017 8:0.25925925 
-1.0 1:0.1764706 2:0.9396985 3:0.57377046 4:0.22222222 5:0.23640662 6:0.5424739 7:0.16859505 8:0.44444445 
-1.0 1:0.4117647 2:0.90954775 3:0.6885246 4:0.21212122 5:0.22695035 6:0.5350224 7:0.24214876 8:0.6296296 
-1.0 1:0.5882353 2:0.4522613 3:0.6967213 4:0.32323232 5:0.0 6:0.52011925 7:0.3409091 8:0.69135803 
1.0 1:0.3529412 2:0.77386934 3:0.60655737 4:0.32323232 5:0.22813238 6:0.4366617 7:0.3466942 8:0.4814815 
1.0 1:0.11764706 2:0.7336683 3:0.6229508 4:0.35353535 5:0.22931442 6:0.5692996 7:0.13595042 8:0.3580247 
-1.0 1:0.5294118 2:0.7035176 3:0.7704918 4:0.0 5:0.0 6:0.48733234 7:0.30330577 8:0.5555556 
-1.0 1:0.05882353 2:0.8442211 3:0.72131145 4:0.2929293 5:0.0 6:0.52160954 7:0.37396693 8:0.6419753 
-1.0 1:0.0 2:0.5678392 3:0.6229508 4:0.0 5:0.0 6:0.4962742 7:0.11487603 8:0.28395063 
-1.0 1:0.11764706 2:0.7236181 3:0.47540984 4:0.33333334 5:0.15957446 6:0.4709389 7:0.17438017 8:0.30864197 
-1.0 1:0.1764706 2:0.8492462 3:0.60655737 4:0.1919192 5:0.14775413 6:0.44560358 7:0.1107438 8:0.38271606 
-1.0 1:0.05882353 2:0.83919597 3:0.60655737 4:0.17171717 5:0.17021276 6:0.34873325 7:0.18471074 8:0.4074074 
